{"fc1.weight": [[0.10463028401136398, -0.08335857838392258, 0.003872949630022049, -0.3840700685977936, -0.4637320339679718, -1.0910248756408691, -0.3257485628128052, 0.40118807554244995, -0.05181995406746864, 0.09584474563598633, -0.09534982591867447, -0.18779639899730682, -0.04639166593551636, -0.0746191069483757, -0.2011941522359848, -0.013274967670440674, -1.8616690635681152, -0.14099115133285522, 0.058966830372810364, -0.08403018116950989, 0.40429365634918213, -0.2285446673631668, -0.008550851605832577, -0.26806414127349854, -0.32071974873542786, -0.7470098733901978, -0.00198726961389184, -0.2796827554702759, -0.011689355596899986, -0.1802835464477539, -0.4089611768722534, -0.47420382499694824], [-0.5790639519691467, -0.2571636438369751, -0.47173792123794556, 0.10606056451797485, 0.1505986601114273, -1.6030906438827515, 0.24063274264335632, -0.028964286670088768, -0.2917979657649994, -0.36106520891189575, -0.07877164334058762, 0.01852625608444214, -0.22229275107383728, -0.1084149032831192, -0.26115137338638306, -0.2975524067878723, -1.8840755224227905, 0.11106151342391968, -0.39891400933265686, -0.3362348973751068, -0.8430865406990051, -0.04904845729470253, 0.16184774041175842, -0.42434263229370117, -0.004929668270051479, -0.40357068181037903, -0.344891756772995, -0.2545422911643982, -0.37352463603019714, -0.2774447798728943, -0.19352175295352936, -0.7932844161987305], [-0.2886847257614136, 0.009938149712979794, -0.37429338693618774, 0.1991097331047058, -0.03200261667370796, -1.0714880228042603, -0.48070892691612244, 0.392611026763916, -0.612805187702179, -0.137771338224411, -0.14921480417251587, -0.26521775126457214, 0.0193498432636261, -0.04596281424164772, -0.07648255676031113, 0.18000763654708862, -1.8802658319473267, -0.5927379131317139, 0.06488578766584396, -0.38413524627685547, -0.6440666317939758, -0.8769250512123108, -0.33877214789390564, -0.4618721008300781, 0.07029828429222107, -0.359671026468277, -0.49607089161872864, -0.09020191431045532, 0.06426678597927094, -0.28226158022880554, 0.02493661269545555, -0.3966955840587616], [-0.2631775140762329, -0.21720625460147858, -0.5440074801445007, -0.35324305295944214, -0.14540141820907593, -1.0451914072036743, -0.4562239944934845, -0.0296292994171381, -0.28748396039009094, -0.22030004858970642, -0.3032698929309845, -0.16703569889068604, -0.05652227997779846, -0.09731976687908173, -0.05078282579779625, -0.27215561270713806, -1.3612322807312012, -0.2336406260728836, -0.5479929447174072, -0.264931321144104, 0.2316150963306427, -0.722230076789856, -0.5459581017494202, -0.5007697343826294, -0.08154431730508804, -0.667252779006958, -0.29594749212265015, -0.14606687426567078, -0.3880138099193573, -0.3588062822818756, -0.09678163379430771, -1.2063907384872437], [-0.851666271686554, -0.342357873916626, -0.5491436123847961, -0.2636324167251587, 0.23513203859329224, -0.8173536062240601, -0.7299631237983704, 0.06330446898937225, -0.12048698961734772, -0.12255017459392548, -0.6842861771583557, -0.07235857844352722, 0.11516863107681274, -0.33821427822113037, -0.032125428318977356, -0.055351197719573975, -1.50075101852417, -0.3699544668197632, -0.1642027646303177, 0.18273049592971802, -0.7221229672431946, -0.7070233821868896, -0.033395007252693176, 0.032844796776771545, -0.264895498752594, -0.15253038704395294, -0.1546071618795395, 0.15819382667541504, -0.48535606265068054, -0.3568989932537079, -0.25016817450523376, -0.4906008243560791]], "fc1.bias": [-0.48247119784355164, -0.6197952032089233, -0.7074308395385742, 0.0, -0.2917592227458954, -0.9655643701553345, -2.016054391860962, -2.1120407581329346, -0.27884697914123535, -0.21616970002651215, -0.1855035424232483, 0.0, 0.0, -0.09267812222242355, -0.11050988733768463, 0.0, -2.819133996963501, -0.4224867820739746, -0.19112710654735565, 0.0, -0.40634527802467346, -1.8800796270370483, -0.09004369378089905, -0.2931303083896637, -1.451251745223999, -0.38906165957450867, -0.477909654378891, 0.0, -0.15527749061584473, 0.0, -0.3393826186656952, -1.313266396522522], "fc2.weight": [[-0.06269143521785736, -0.1403951644897461, 0.06688454747200012, -0.10387126356363297, -0.35768789052963257, 0.07961410284042358, -0.19197267293930054, 0.0005628620856441557, -0.42204922437667847, -0.2326509952545166, 0.08959214389324188, 0.12674735486507416, 0.15169364213943481, -0.18172764778137207, 0.11047777533531189, -0.06613686680793762, -0.12555140256881714, -0.17783822119235992, -0.19468148052692413, -0.09755509346723557, -0.5526573061943054, 0.00016353839600924402, 0.0047208345495164394, -0.20726177096366882, -0.2914864122867584, -0.9552867412567139, -0.13638973236083984, -0.011702746152877808, 0.08385762572288513, 0.5176835060119629, -0.013760303147137165, -0.003085699863731861], [-0.1226775273680687, -0.22490689158439636, -0.11705902218818665, 0.034960344433784485, -0.24526546895503998, -0.08637384325265884, -0.2971543073654175, -0.12997598946094513, -0.22572264075279236, -0.44521084427833557, 0.21653296053409576, -0.06759940087795258, -1.169782280921936, -0.1549113541841507, -0.587251603603363, -0.05553111433982849, -0.09638625383377075, 0.272789865732193, -0.24313220381736755, -0.13025648891925812, 0.1531628668308258, 0.25998976826667786, -0.10660015046596527, 0.12533465027809143, -0.2877142131328583, -0.0829683393239975, 0.22730256617069244, -0.24571733176708221, 0.05951787903904915, -0.09268136322498322, 0.14949306845664978, 0.5386632680892944], [-0.08253874629735947, 0.1450432538986206, -0.3475087583065033, -0.35712099075317383, 0.08468979597091675, -0.22649894654750824, -0.660410463809967, -0.4322091042995453, 0.3442499339580536, -0.3184666335582733, 0.4951198697090149, -0.38337039947509766, -0.8729627132415771, 0.015038516372442245, -0.2989848554134369, 0.022485464811325073, -0.12092065811157227, -0.5516809225082397, -0.0011932890629395843, -0.0841766744852066, 0.1233745589852333, 0.009101173840463161, 0.1784658133983612, -1.3100816011428833, -0.2350102812051773, 0.11411722004413605, -0.027225160971283913, -0.09880517423152924, -0.42618027329444885, -0.11341683566570282, -0.32916927337646484, 0.1481541097164154], [-0.14057156443595886, 0.11744445562362671, 0.07223686575889587, -0.11080682277679443, 0.19013795256614685, -0.15620684623718262, 0.29998961091041565, 0.04507109522819519, 0.09295666217803955, 0.23893722891807556, 0.09086987376213074, 0.14828011393547058, -0.058314248919487, 0.09778165817260742, 0.17867174744606018, -0.033674418926239014, 0.21005073189735413, -0.18086695671081543, -0.1664474904537201, 0.0865887999534607, 0.0060762763023376465, -0.11663031578063965, -0.23940709233283997, -0.1615959256887436, 0.09577065706253052, 0.11969411373138428, -0.19371700286865234, -0.08188256621360779, 0.21078822016716003, 0.27828583121299744, -0.09629949927330017, -0.14101503789424896], [-0.03142363950610161, 0.21926076710224152, -0.11943003535270691, 0.08968367427587509, 0.03889255225658417, 0.040493909269571304, -0.14821836352348328, -0.22279199957847595, -0.08359088748693466, -0.4701019525527954, 0.19517208635807037, 0.10089708119630814, -0.7196664810180664, -0.2538481652736664, -0.26495474576950073, 0.12378758192062378, -0.23868049681186676, -0.10147691518068314, -0.44166311621665955, -0.010657540522515774, -0.36985015869140625, -0.1285199075937271, 0.14923697710037231, -0.16096264123916626, -0.2648439407348633, -0.13370314240455627, -0.19450995326042175, 0.005057573318481445, -0.22873273491859436, -0.3130438029766083, -0.405231237411499, -0.23956196010112762], [-1.3374186754226685, -0.30589956045150757, -0.13871093094348907, 0.047430068254470825, 0.018666625022888184, -0.1833740472793579, 0.1444169282913208, 0.07172137498855591, 0.4615045189857483, -0.17214952409267426, -1.8031800985336304, -0.3019252419471741, 0.13218596577644348, -1.235170841217041, 0.04068291187286377, -1.2800707817077637, 0.10973125696182251, 0.11618000268936157, -1.2935254573822021, 0.28254956007003784, -0.06881727278232574, -1.1312116384506226, -0.19517654180526733, 0.1481608748435974, -0.23372560739517212, 0.06301656365394592, -1.3313013315200806, -0.2776041328907013, -0.24944624304771423, -1.3610583543777466, -2.4040873050689697, -0.2872663736343384], [-0.04552064463496208, -0.28023648262023926, 0.04785103350877762, -0.3001079857349396, 0.09603284299373627, 0.02366728149354458, -0.5449714064598083, -0.4691193699836731, -0.008505085483193398, -0.6391171216964722, 0.1266108751296997, 0.04419347271323204, -0.6317881941795349, 0.14428046345710754, -0.2790001332759857, -0.1241341084241867, -0.18655386567115784, 0.0008725621737539768, -0.4454474151134491, -0.3416159152984619, 0.016085723415017128, 1.1262468099594116, -0.3368503153324127, -1.0536308288574219, -0.14840933680534363, -0.011742609553039074, 0.013041234575212002, 0.056744128465652466, -0.7591397762298584, -0.9466988444328308, 0.3102377653121948, 0.1967218965291977], [-0.33344611525535583, -0.4203317165374756, -0.09914173930883408, -0.4588601887226105, -0.3981126844882965, -0.43188944458961487, -0.3661194145679474, -0.3073381781578064, -0.067348413169384, -0.08558662235736847, -0.4470359981060028, -0.1236676424741745, -0.6373189687728882, -0.4507116377353668, -0.08969740569591522, -1.7740747928619385, -0.31682050228118896, -0.4579443633556366, -0.4561706781387329, -0.41449981927871704, -0.4489300549030304, 1.8178714513778687, -0.13146542012691498, -0.29425370693206787, -0.2822073698043823, -0.7045912146568298, -0.20029012858867645, -0.12734030187129974, -0.5321415066719055, -0.26975297927856445, -0.22157873213291168, -0.14274147152900696], [0.27323487401008606, -0.05205806344747543, -0.07141204178333282, 0.12238133698701859, 0.4341646730899811, 0.03921206668019295, -0.131727397441864, 0.003824974875897169, -0.14054721593856812, -0.12821175158023834, 0.16215704381465912, -0.037004295736551285, -0.2510629892349243, -0.4664572775363922, -0.05832792818546295, -0.15709179639816284, -0.12891575694084167, -0.19179922342300415, -0.08519715815782547, 0.18006069958209991, -0.0003564615035429597, -0.2947363555431366, 0.0805995836853981, -0.1748690903186798, 0.0004125535488128662, -0.24696195125579834, -0.2164880782365799, -0.078396275639534, -0.011037521995604038, -0.040749453008174896, -0.3495715856552124, -0.2568318545818329], [0.07169642299413681, -0.39598533511161804, -0.28978851437568665, -0.18313023447990417, -0.05061928927898407, -0.06954585015773773, -0.08600353449583054, -0.2563328444957733, -0.371006578207016, -0.0981849655508995, 0.19485433399677277, 0.08104299008846283, 0.08284397423267365, -0.17176572978496552, -0.12911668419837952, -0.14650288224220276, -0.024139009416103363, -0.07409574091434479, -0.03879666328430176, -0.0777214989066124, 0.23956143856048584, -0.30540764331817627, 0.14773312211036682, -0.14169591665267944, 0.04417291283607483, -0.8950181007385254, -0.21100853383541107, -0.1581428200006485, 0.20079825818538666, 0.09971912205219269, 0.19956214725971222, -0.0785926952958107], [-0.04673684760928154, -0.31447842717170715, -0.15744787454605103, -0.31848496198654175, -0.5459158420562744, -0.3978843092918396, 0.1398305743932724, -0.10761720687150955, 0.012692570686340332, -0.13865546882152557, 0.2361319214105606, 0.2117932289838791, -0.32083919644355774, -0.04427644610404968, -0.20683753490447998, 0.17355865240097046, -0.14061014354228973, -0.19037029147148132, 0.11581926792860031, 0.022242791950702667, -0.08537615090608597, -0.5286990404129028, 0.00822874903678894, -0.2840886414051056, -0.179180309176445, -0.20800846815109253, -0.22373898327350616, -0.06464630365371704, -0.3164149820804596, -0.2110077142715454, 0.14937438070774078, -0.15930691361427307], [0.23324307799339294, -0.07418236136436462, -0.2603578269481659, 0.27283570170402527, 0.2640467584133148, 0.22024497389793396, 0.19354459643363953, -0.11596181988716125, 0.2907491624355316, -0.14780309796333313, 0.22594961524009705, 0.12901192903518677, -0.15346716344356537, -0.2675097584724426, -0.16211217641830444, -0.1975034773349762, 0.22263887524604797, 0.08884909749031067, -0.1551748663187027, 0.2745247781276703, -0.1897968351840973, -0.18911561369895935, -0.026463359594345093, 0.03920617699623108, 0.2004801332950592, -0.007774770259857178, -0.1615089327096939, -0.2843628525733948, -0.21366041898727417, 0.040217578411102295, -0.0033482015132904053, -0.20924264192581177], [-0.05553540587425232, 0.004602968692779541, 0.06965440511703491, -0.22310781478881836, -0.2368817925453186, -0.09498615562915802, 0.30242231488227844, 0.14830726385116577, 0.017240047454833984, 0.05446755886077881, -0.15621110796928406, 0.24192842841148376, 0.020885884761810303, -0.14476846158504486, 0.30268362164497375, -0.028798997402191162, 0.20483645796775818, -0.08420318365097046, -0.14858102798461914, -0.2383110374212265, -0.13149766623973846, -0.1058194637298584, -0.017164617776870728, 0.10910576581954956, -0.11624203622341156, -0.2802833914756775, 0.05017220973968506, -0.16233012080192566, 0.11524853110313416, 0.2071501910686493, -0.21584929525852203, 0.2777992784976959], [0.1553574502468109, 0.11534479260444641, 0.008907871320843697, 0.009891579858958721, 0.04487106204032898, -0.16408245265483856, -0.10200495272874832, 0.28621721267700195, -0.026335030794143677, 0.2711867392063141, -0.02005496621131897, 0.06189499422907829, 0.24191567301750183, 0.3059328496456146, -0.05124226212501526, -0.06489282846450806, -0.16700094938278198, 0.168600395321846, 0.061905939131975174, 0.16405907273292542, -0.06935256719589233, 0.024682750925421715, -0.12412217259407043, -0.05617833137512207, -0.08619970083236694, -0.055671125650405884, 0.08879885077476501, 0.028207391500473022, -0.22722671926021576, -0.08808664977550507, -0.08111989498138428, -0.16693776845932007], [0.0205994825810194, 0.09548687934875488, 0.16822674870491028, -0.052297092974185944, -0.2522158920764923, -0.13940009474754333, 0.024774638935923576, 0.16328966617584229, -0.22609974443912506, -0.25625237822532654, 0.31103914976119995, 0.01486877165734768, 0.1018543615937233, -0.2923831045627594, 0.10725581645965576, -0.18583430349826813, -0.16376930475234985, 0.003130319993942976, -0.025717763230204582, 0.17024213075637817, -0.10748885571956635, -0.06783902645111084, -0.027476370334625244, -0.12184521555900574, 0.23327568173408508, -0.11196373403072357, 0.2441423386335373, 0.20063647627830505, 0.23924404382705688, -0.02063365839421749, -0.11204518377780914, 0.12371107935905457], [0.18423104286193848, 0.24290165305137634, 0.019770562648773193, 0.29941341280937195, -0.010387897491455078, 0.22386345267295837, 0.2138025462627411, 0.0832507312297821, -0.15181885659694672, 0.014670222997665405, 0.17292556166648865, -0.2691410779953003, -0.2514050602912903, 0.22590556740760803, 0.21174433827400208, 0.1387895941734314, -0.06492415070533752, 0.22359153628349304, -0.03369829058647156, 0.19661322236061096, 0.2383451759815216, 0.13973987102508545, -0.021155625581741333, -0.0018568634986877441, 0.2628766596317291, 0.30048200488090515, -0.06917157769203186, 0.27824607491493225, -0.1445983350276947, -0.022876828908920288, 0.18909767270088196, 0.21323123574256897], [0.29822495579719543, 0.062331169843673706, 0.02448028326034546, -0.06617100536823273, -0.1360575407743454, 0.23543474078178406, -0.2078441083431244, 0.3012513816356659, -0.23602783679962158, -0.23285870254039764, -1.3025035858154297, 0.05719029903411865, 0.03391486406326294, 0.025866329669952393, -0.023918598890304565, -0.12754356861114502, -0.21935810148715973, -0.2132018506526947, -0.26895037293434143, -0.023526012897491455, 0.10403192043304443, -1.4190009832382202, 0.2605530321598053, -0.24319812655448914, -0.03512582182884216, 0.24887552857398987, 0.02191948890686035, -0.23161625862121582, 0.14802873134613037, -0.7131507992744446, -0.10014940798282623, -0.2012736201286316], [-0.126074880361557, -0.15742899477481842, -0.07238372415304184, -0.2950787842273712, -0.03259503096342087, -0.08535555750131607, -0.0339852049946785, -0.17407731711864471, 0.18911054730415344, -0.30577123165130615, 0.18219025433063507, -0.329415887594223, -0.9206140637397766, 0.24387921392917633, -0.4885043799877167, -0.015839695930480957, -0.1376887857913971, 0.2724228501319885, 0.01738460175693035, -0.2617028057575226, 0.17396573722362518, 0.00733971456065774, 0.1105872243642807, -0.18643724918365479, -0.21980439126491547, 0.08045033365488052, 0.15527361631393433, 0.12857407331466675, -0.37216079235076904, 0.06792504340410233, 0.04700589179992676, -0.2098345309495926], [-0.16666211187839508, -0.16566579043865204, 0.25451281666755676, -0.09193277359008789, -0.5666019916534424, 0.002312870929017663, -0.16385887563228607, -0.12149211764335632, -0.035002417862415314, 0.1895405650138855, 0.2403847724199295, 0.030202483758330345, -0.046152833849191666, -0.32973846793174744, -0.20745310187339783, -0.2152748554944992, -0.4472303092479706, -0.21792761981487274, -0.14438816905021667, 0.13705380260944366, -0.1917329728603363, -0.08427685499191284, -0.31362366676330566, -0.006982982158660889, -0.1536041498184204, 0.017171621322631836, -0.006150313653051853, -0.17259588837623596, -0.3049958348274231, -0.09831838309764862, -0.12709729373455048, 0.09499340504407883], [-0.030464351177215576, -0.2242540717124939, -0.1446906477212906, 0.15793731808662415, 0.19597128033638, -0.28536462783813477, 0.19682392477989197, 0.29091665148735046, -0.27048757672309875, 0.0032103657722473145, 0.16102150082588196, 0.054021626710891724, -0.2550755739212036, 0.2011118233203888, -0.11280001699924469, -0.030881881713867188, 0.11645552515983582, -0.15313851833343506, -0.056395649909973145, -0.13388164341449738, -0.2729427218437195, 0.080873042345047, 0.0012665987014770508, 0.2720089256763458, 0.038989514112472534, -0.09913477301597595, 0.03934115171432495, -0.23673002421855927, 0.033727824687957764, -0.1842675358057022, -0.14420993626117706, 0.29680439829826355], [-0.047373559325933456, -0.25946617126464844, 0.14580509066581726, 0.24611951410770416, -0.12879584729671478, -0.14882652461528778, -0.23437319695949554, 0.30470895767211914, -0.2878428101539612, 0.2135201096534729, 0.42195913195610046, -0.058607317507267, -0.1492467224597931, -0.24865834414958954, 0.1092890202999115, 0.04350471496582031, 0.19359925389289856, -0.3907352089881897, -0.24997520446777344, -0.03690214082598686, -0.3142666518688202, 0.15671773254871368, -0.25693219900131226, -0.09415481984615326, 0.1794840693473816, -0.6282761693000793, -0.07149771600961685, -0.013483017683029175, 0.03989946097135544, 0.3215717375278473, 0.386648565530777, -0.5926147103309631], [-0.37491387128829956, -0.6812809705734253, -0.10446964204311371, -0.18955865502357483, -0.2064705342054367, -0.5020214319229126, -0.8810439109802246, -0.2566126883029938, -0.15921606123447418, -0.3538864552974701, 0.5384783744812012, -0.39125576615333557, -0.35566332936286926, -0.14326457679271698, -0.5816413760185242, 1.4710873365402222, -0.04057689756155014, -0.3621068298816681, -0.4961299002170563, -0.14315037429332733, -0.20385923981666565, 1.2421432733535767, -0.1172107458114624, -0.8938507437705994, 0.15243318676948547, -0.3089520335197449, -0.25842684507369995, -0.1756427139043808, -0.41579899191856384, -0.2761771082878113, 0.23086076974868774, 0.10127878189086914], [-0.14693453907966614, 0.11902901530265808, -0.2833622395992279, -0.05870946869254112, -0.16961824893951416, -0.006381988525390625, 0.08589953929185867, 0.25716832280158997, -0.07577168941497803, -0.2548253536224365, -0.051978517323732376, -0.19867779314517975, -0.34035661816596985, 0.34715157747268677, -0.037384361028671265, -0.11440578103065491, -0.24722948670387268, 0.20074968039989471, 0.14374376833438873, -0.136650949716568, 0.07718373090028763, -0.15346942842006683, -0.3119339048862457, -0.12049971520900726, -0.1352064609527588, -0.2279885858297348, -0.2284732311964035, -0.26370176672935486, 0.17676392197608948, 0.21746481955051422, 0.06106853857636452, -0.1767181009054184], [-0.053230613470077515, 0.2678861916065216, 0.10661002993583679, 0.14422765374183655, 0.4571208655834198, -0.21814221143722534, -0.28050240874290466, 0.11300110816955566, -0.18352918326854706, -0.1829426884651184, 0.44753924012184143, 0.2263137400150299, -0.2919248938560486, 0.002095359843224287, 0.11646914482116699, 0.09096291661262512, -0.23187728226184845, -0.26845860481262207, -0.007037162780761719, 0.020319730043411255, -0.19834628701210022, 0.04222884401679039, 0.07959651947021484, -0.08150610327720642, -0.2894582450389862, -0.06150834262371063, 0.011803805828094482, -0.2861422002315521, -0.017609238624572754, 0.17728489637374878, 0.1782533824443817, 0.09419258683919907], [-0.10069679468870163, -0.2715490460395813, -0.2792273461818695, -0.771532416343689, -0.03653834015130997, -0.17461219429969788, -1.0574851036071777, -0.4698258340358734, 0.22261451184749603, -0.13233140110969543, -0.011148539371788502, -0.03212106227874756, -0.49462977051734924, -0.4366558790206909, -0.07398064434528351, -0.07933211326599121, -0.34120872616767883, -0.10824119299650192, -0.0474419966340065, -0.3515251576900482, 0.17392151057720184, 0.5320190787315369, -0.2893899977207184, -1.3370864391326904, -0.2679579555988312, -0.1735394299030304, -0.15120241045951843, -0.20494525134563446, -0.1659730076789856, -0.6599528789520264, 0.3811124265193939, 0.1585974395275116], [-0.22444182634353638, -0.10367226600646973, -0.1369348019361496, 0.10730457305908203, 0.022485418245196342, -1.3997063636779785, -0.2001154124736786, 0.2446443736553192, -0.35764193534851074, -0.23007653653621674, -1.2662396430969238, 0.0926593616604805, 0.04197335243225098, 0.2957034409046173, 0.09214076399803162, -0.16974930465221405, 0.08905529975891113, 0.05629972368478775, -0.02417348138988018, 0.16687098145484924, -0.2660469114780426, -1.5747694969177246, 0.3022734820842743, 0.25367072224617004, -0.09741505980491638, -0.2900508940219879, 0.30349472165107727, 0.2516041696071625, 0.018176384270191193, 0.18120579421520233, -1.3558281660079956, -0.055096421390771866], [-0.01520573254674673, -0.05583232641220093, -0.13725754618644714, 0.1392184942960739, 0.32784539461135864, 0.1519818753004074, 0.10106959939002991, -0.3311447203159332, -0.5487378239631653, 0.08097057044506073, 0.31110870838165283, -0.16089528799057007, -0.11541680991649628, -0.2485625147819519, 0.06055343151092529, -0.22579170763492584, -0.0867341160774231, -0.10932165384292603, 0.05419201776385307, -0.20843638479709625, -0.3240791857242584, -0.1751757711172104, 0.1626262664794922, 0.2981419861316681, 0.003840833902359009, 0.12171852588653564, 0.13002657890319824, 0.17076250910758972, -0.13918229937553406, 0.00632011704146862, -0.14192262291908264, 0.33917853236198425], [-0.029391974210739136, -0.0011188089847564697, -0.2083028256893158, 0.1975167691707611, 0.19872406125068665, -0.1838282197713852, 0.20530638098716736, 0.1989440619945526, -0.014709174633026123, 0.07611244916915894, 0.09697410464286804, -0.05272412300109863, 0.26736554503440857, -0.22070138156414032, 0.20961222052574158, -0.0648592859506607, 0.055671364068984985, 0.13124722242355347, 0.17282730340957642, 0.1859070062637329, 0.15963950753211975, 0.0028067827224731445, -0.2107660174369812, -0.006430894136428833, -0.13753138482570648, 0.2521388828754425, 0.06074446439743042, -0.12120293080806732, 0.010422825813293457, 0.22558483481407166, -0.10612328350543976, 0.022264987230300903], [-0.25079742074012756, -0.012796778231859207, 0.13498173654079437, -0.354448527097702, 0.0947180911898613, -0.315256267786026, -0.3046891689300537, -0.03503457084298134, -0.31747469305992126, 0.012467607855796814, 0.25741899013519287, -0.1339651644229889, -0.24377118051052094, 0.1509413719177246, 0.14148494601249695, -0.2892475128173828, 0.1487356722354889, 0.08930298686027527, -0.059465836733579636, -0.0744645968079567, -0.0585341602563858, -0.025164570659399033, -0.35686957836151123, 0.19454148411750793, -0.24210304021835327, -0.3866148889064789, 0.27644288539886475, -0.20493677258491516, -0.3100118935108185, 0.04648275673389435, -0.27107134461402893, -0.15439949929714203], [0.044658780097961426, -0.006727367639541626, -0.2736756503582001, -0.08174510300159454, -0.2698126435279846, 0.037919968366622925, 0.05838581919670105, -0.2111773043870926, -0.2781272530555725, 0.17276251316070557, -0.2018231302499771, 0.21056225895881653, -0.18587960302829742, -0.09801095724105835, 0.10358700156211853, 0.254140704870224, 0.14220574498176575, -0.23896563053131104, -0.06111261248588562, 0.16892749071121216, 0.14646068215370178, 0.12027183175086975, 0.011946678161621094, 0.2504424750804901, 0.032268255949020386, 0.08253750205039978, -0.15769170224666595, -0.23553124070167542, -0.2513505518436432, 0.033561378717422485, 0.1451621651649475, 0.29078981280326843], [-0.27633073925971985, -0.07496320456266403, 0.026493152603507042, 0.06754682958126068, 0.0011690190294757485, -0.027196070179343224, -0.25907471776008606, -0.22693990170955658, 0.39662685990333557, -0.25080326199531555, -0.12763161957263947, -0.31313052773475647, -0.2882865369319916, 0.0614604577422142, -0.41871577501296997, -0.1462736576795578, 0.05708179622888565, 0.41099387407302856, 0.0005822749808430672, 0.21962668001651764, 0.07260660827159882, 0.024258626624941826, -0.15407879650592804, 0.15208807587623596, -0.24303248524665833, -0.1329086720943451, 0.18062031269073486, -0.18080954253673553, 0.19375044107437134, -0.20421847701072693, -0.015199525281786919, 0.32691600918769836], [-0.15807214379310608, 0.03878986835479736, -0.2755712568759918, -0.9885926842689514, -0.845516562461853, -0.049869269132614136, -0.14211715757846832, -0.3034042418003082, 0.010218452662229538, 0.18945688009262085, -0.15612919628620148, 0.19285592436790466, -0.05698816478252411, -0.2051403522491455, -0.2455303817987442, -0.1268891543149948, -0.061948180198669434, -1.1241596937179565, 0.2414679229259491, 0.04637223482131958, -1.151160478591919, 0.12521503865718842, 0.08988606929779053, 0.1576918065547943, -0.23512780666351318, -0.011167347431182861, 0.2636217772960663, -0.12599511444568634, -0.17892196774482727, -1.1804180145263672, 1.1287097930908203, -0.4519123435020447]], "fc2.bias": [-0.20894643664360046, -0.9416014552116394, -0.050512608140707016, -0.10992222279310226, -0.6534633040428162, -2.556640863418579, -1.9763813018798828, -0.21378697454929352, -1.0033003091812134, -0.21475578844547272, -1.3241755962371826, -0.10536716878414154, -0.8950490951538086, -0.26216065883636475, -0.3237675428390503, -1.4833849668502808, -0.1133214458823204, -0.5610395669937134, -0.2280856817960739, -0.5663210153579712, -0.5627305507659912, 1.4126875400543213, -0.06860481202602386, -1.0455840826034546, 0.0, -0.16607506573200226, -0.13810297846794128, 0.0, -1.7460730075836182, -1.856779932975769, -1.3904485702514648, -0.5294744968414307], "fc3.weight": [[0.06118384003639221, 0.14278168976306915, 0.136327862739563], [0.21454434096813202, 0.024517348036170006, 0.017603475600481033], [-0.02796727605164051, 0.22690042853355408, 0.07917379587888718], [0.02612883783876896, 0.051858704537153244, 0.45058250427246094], [-0.10776469111442566, 0.12167015671730042, -0.4213363826274872], [0.7321764230728149, 0.2563547194004059, 1.359960675239563], [0.20321650803089142, -0.378662645816803, 0.08686499297618866], [-0.22438211739063263, 0.16377903521060944, 0.24150671064853668], [-0.42905759811401367, -0.0794682726264, -0.19652023911476135], [0.2442796379327774, 0.05498792231082916, -0.035318586975336075], [-0.6729530096054077, 0.4093606770038605, 0.12059443444013596], [-0.11079710721969604, 0.113031305372715, 0.07228133827447891], [0.03693094104528427, 0.28227490186691284, 0.5817129611968994], [0.14205226302146912, 0.06118825450539589, -0.11043141782283783], [-0.405286580324173, -0.3514394164085388, 0.25063368678092957], [1.1874412298202515, 1.165632963180542, 1.8711657524108887], [0.07917221635580063, 0.14992621541023254, -0.1308489739894867], [-0.1872454434633255, 0.3001224994659424, 0.3062342703342438], [0.23500244319438934, -0.09350983798503876, -0.31537675857543945], [0.5426443219184875, 0.2785269021987915, -0.2403572052717209], [-0.6911389231681824, -0.34913402795791626, -0.5674921274185181], [1.2245231866836548, 1.2564449310302734, 1.253035545349121], [-0.15331518650054932, 0.002298464998602867, 0.19711890816688538], [0.07090359926223755, 1.048124074935913, -0.9667556881904602], [-0.2885415554046631, -0.03507012128829956, -0.40906739234924316], [0.6888703107833862, 0.2753980755805969, 0.007783740758895874], [0.07096482813358307, -0.2852989137172699, -0.27260857820510864], [0.1783410608768463, -0.21657362580299377, -0.35353657603263855], [0.18790596723556519, -0.021209759637713432, 0.13195374608039856], [-0.11959370970726013, 0.045940715819597244, 0.6075848340988159], [0.05466923117637634, 0.3219183683395386, 0.20039361715316772], [-0.018468102440238, 0.48526531457901, -0.1322478950023651]], "fc3.bias": [3.4618802070617676, 4.251375198364258, 3.8660855293273926]}