#ifndef TRAINED_WEIGHTS_H
#define TRAINED_WEIGHTS_H

#define INPUT_DIM 5
#define HIDDEN_DIM 32
#define OUTPUT_DIM 3

const float weights1[INPUT_DIM][HIDDEN_DIM] = {
    {0.104630f, -0.083359f, 0.003873f, -0.384070f, -0.463732f, -1.091025f, -0.325749f, 0.401188f, -0.051820f, 0.095845f, -0.095350f, -0.187796f, -0.046392f, -0.074619f, -0.201194f, -0.013275f, -1.861669f, -0.140991f, 0.058967f, -0.084030f, 0.404294f, -0.228545f, -0.008551f, -0.268064f, -0.320720f, -0.747010f, -0.001987f, -0.279683f, -0.011689f, -0.180284f, -0.408961f, -0.474204f},
    {-0.579064f, -0.257164f, -0.471738f, 0.106061f, 0.150599f, -1.603091f, 0.240633f, -0.028964f, -0.291798f, -0.361065f, -0.078772f, 0.018526f, -0.222293f, -0.108415f, -0.261151f, -0.297552f, -1.884076f, 0.111062f, -0.398914f, -0.336235f, -0.843087f, -0.049048f, 0.161848f, -0.424343f, -0.004930f, -0.403571f, -0.344892f, -0.254542f, -0.373525f, -0.277445f, -0.193522f, -0.793284f},
    {-0.288685f, 0.009938f, -0.374293f, 0.199110f, -0.032003f, -1.071488f, -0.480709f, 0.392611f, -0.612805f, -0.137771f, -0.149215f, -0.265218f, 0.019350f, -0.045963f, -0.076483f, 0.180008f, -1.880266f, -0.592738f, 0.064886f, -0.384135f, -0.644067f, -0.876925f, -0.338772f, -0.461872f, 0.070298f, -0.359671f, -0.496071f, -0.090202f, 0.064267f, -0.282262f, 0.024937f, -0.396696f},
    {-0.263178f, -0.217206f, -0.544007f, -0.353243f, -0.145401f, -1.045191f, -0.456224f, -0.029629f, -0.287484f, -0.220300f, -0.303270f, -0.167036f, -0.056522f, -0.097320f, -0.050783f, -0.272156f, -1.361232f, -0.233641f, -0.547993f, -0.264931f, 0.231615f, -0.722230f, -0.545958f, -0.500770f, -0.081544f, -0.667253f, -0.295947f, -0.146067f, -0.388014f, -0.358806f, -0.096782f, -1.206391f},
    {-0.851666f, -0.342358f, -0.549144f, -0.263632f, 0.235132f, -0.817354f, -0.729963f, 0.063304f, -0.120487f, -0.122550f, -0.684286f, -0.072359f, 0.115169f, -0.338214f, -0.032125f, -0.055351f, -1.500751f, -0.369954f, -0.164203f, 0.182730f, -0.722123f, -0.707023f, -0.033395f, 0.032845f, -0.264895f, -0.152530f, -0.154607f, 0.158194f, -0.485356f, -0.356899f, -0.250168f, -0.490601f},
};

const float bias1[HIDDEN_DIM] = {
    -0.482471f, -0.619795f, -0.707431f, 0.000000f, -0.291759f, -0.965564f, -2.016054f, -2.112041f, -0.278847f, -0.216170f, -0.185504f, 0.000000f, 0.000000f, -0.092678f, -0.110510f, 0.000000f, -2.819134f, -0.422487f, -0.191127f, 0.000000f, -0.406345f, -1.880080f, -0.090044f, -0.293130f, -1.451252f, -0.389062f, -0.477910f, 0.000000f, -0.155277f, 0.000000f, -0.339383f, -1.313266f
};

const float weights2[HIDDEN_DIM][HIDDEN_DIM] = {
    {-0.062691f, -0.140395f, 0.066885f, -0.103871f, -0.357688f, 0.079614f, -0.191973f, 0.000563f, -0.422049f, -0.232651f, 0.089592f, 0.126747f, 0.151694f, -0.181728f, 0.110478f, -0.066137f, -0.125551f, -0.177838f, -0.194681f, -0.097555f, -0.552657f, 0.000164f, 0.004721f, -0.207262f, -0.291486f, -0.955287f, -0.136390f, -0.011703f, 0.083858f, 0.517684f, -0.013760f, -0.003086f},
    {-0.122678f, -0.224907f, -0.117059f, 0.034960f, -0.245265f, -0.086374f, -0.297154f, -0.129976f, -0.225723f, -0.445211f, 0.216533f, -0.067599f, -1.169782f, -0.154911f, -0.587252f, -0.055531f, -0.096386f, 0.272790f, -0.243132f, -0.130256f, 0.153163f, 0.259990f, -0.106600f, 0.125335f, -0.287714f, -0.082968f, 0.227303f, -0.245717f, 0.059518f, -0.092681f, 0.149493f, 0.538663f},
    {-0.082539f, 0.145043f, -0.347509f, -0.357121f, 0.084690f, -0.226499f, -0.660410f, -0.432209f, 0.344250f, -0.318467f, 0.495120f, -0.383370f, -0.872963f, 0.015039f, -0.298985f, 0.022485f, -0.120921f, -0.551681f, -0.001193f, -0.084177f, 0.123375f, 0.009101f, 0.178466f, -1.310082f, -0.235010f, 0.114117f, -0.027225f, -0.098805f, -0.426180f, -0.113417f, -0.329169f, 0.148154f},
    {-0.140572f, 0.117444f, 0.072237f, -0.110807f, 0.190138f, -0.156207f, 0.299990f, 0.045071f, 0.092957f, 0.238937f, 0.090870f, 0.148280f, -0.058314f, 0.097782f, 0.178672f, -0.033674f, 0.210051f, -0.180867f, -0.166447f, 0.086589f, 0.006076f, -0.116630f, -0.239407f, -0.161596f, 0.095771f, 0.119694f, -0.193717f, -0.081883f, 0.210788f, 0.278286f, -0.096299f, -0.141015f},
    {-0.031424f, 0.219261f, -0.119430f, 0.089684f, 0.038893f, 0.040494f, -0.148218f, -0.222792f, -0.083591f, -0.470102f, 0.195172f, 0.100897f, -0.719666f, -0.253848f, -0.264955f, 0.123788f, -0.238680f, -0.101477f, -0.441663f, -0.010658f, -0.369850f, -0.128520f, 0.149237f, -0.160963f, -0.264844f, -0.133703f, -0.194510f, 0.005058f, -0.228733f, -0.313044f, -0.405231f, -0.239562f},
    {-1.337419f, -0.305900f, -0.138711f, 0.047430f, 0.018667f, -0.183374f, 0.144417f, 0.071721f, 0.461505f, -0.172150f, -1.803180f, -0.301925f, 0.132186f, -1.235171f, 0.040683f, -1.280071f, 0.109731f, 0.116180f, -1.293525f, 0.282550f, -0.068817f, -1.131212f, -0.195177f, 0.148161f, -0.233726f, 0.063017f, -1.331301f, -0.277604f, -0.249446f, -1.361058f, -2.404087f, -0.287266f},
    {-0.045521f, -0.280236f, 0.047851f, -0.300108f, 0.096033f, 0.023667f, -0.544971f, -0.469119f, -0.008505f, -0.639117f, 0.126611f, 0.044193f, -0.631788f, 0.144280f, -0.279000f, -0.124134f, -0.186554f, 0.000873f, -0.445447f, -0.341616f, 0.016086f, 1.126247f, -0.336850f, -1.053631f, -0.148409f, -0.011743f, 0.013041f, 0.056744f, -0.759140f, -0.946699f, 0.310238f, 0.196722f},
    {-0.333446f, -0.420332f, -0.099142f, -0.458860f, -0.398113f, -0.431889f, -0.366119f, -0.307338f, -0.067348f, -0.085587f, -0.447036f, -0.123668f, -0.637319f, -0.450712f, -0.089697f, -1.774075f, -0.316821f, -0.457944f, -0.456171f, -0.414500f, -0.448930f, 1.817871f, -0.131465f, -0.294254f, -0.282207f, -0.704591f, -0.200290f, -0.127340f, -0.532142f, -0.269753f, -0.221579f, -0.142741f},
    {0.273235f, -0.052058f, -0.071412f, 0.122381f, 0.434165f, 0.039212f, -0.131727f, 0.003825f, -0.140547f, -0.128212f, 0.162157f, -0.037004f, -0.251063f, -0.466457f, -0.058328f, -0.157092f, -0.128916f, -0.191799f, -0.085197f, 0.180061f, -0.000356f, -0.294736f, 0.080600f, -0.174869f, 0.000413f, -0.246962f, -0.216488f, -0.078396f, -0.011038f, -0.040749f, -0.349572f, -0.256832f},
    {0.071696f, -0.395985f, -0.289789f, -0.183130f, -0.050619f, -0.069546f, -0.086004f, -0.256333f, -0.371007f, -0.098185f, 0.194854f, 0.081043f, 0.082844f, -0.171766f, -0.129117f, -0.146503f, -0.024139f, -0.074096f, -0.038797f, -0.077721f, 0.239561f, -0.305408f, 0.147733f, -0.141696f, 0.044173f, -0.895018f, -0.211009f, -0.158143f, 0.200798f, 0.099719f, 0.199562f, -0.078593f},
    {-0.046737f, -0.314478f, -0.157448f, -0.318485f, -0.545916f, -0.397884f, 0.139831f, -0.107617f, 0.012693f, -0.138655f, 0.236132f, 0.211793f, -0.320839f, -0.044276f, -0.206838f, 0.173559f, -0.140610f, -0.190370f, 0.115819f, 0.022243f, -0.085376f, -0.528699f, 0.008229f, -0.284089f, -0.179180f, -0.208008f, -0.223739f, -0.064646f, -0.316415f, -0.211008f, 0.149374f, -0.159307f},
    {0.233243f, -0.074182f, -0.260358f, 0.272836f, 0.264047f, 0.220245f, 0.193545f, -0.115962f, 0.290749f, -0.147803f, 0.225950f, 0.129012f, -0.153467f, -0.267510f, -0.162112f, -0.197503f, 0.222639f, 0.088849f, -0.155175f, 0.274525f, -0.189797f, -0.189116f, -0.026463f, 0.039206f, 0.200480f, -0.007775f, -0.161509f, -0.284363f, -0.213660f, 0.040218f, -0.003348f, -0.209243f},
    {-0.055535f, 0.004603f, 0.069654f, -0.223108f, -0.236882f, -0.094986f, 0.302422f, 0.148307f, 0.017240f, 0.054468f, -0.156211f, 0.241928f, 0.020886f, -0.144768f, 0.302684f, -0.028799f, 0.204836f, -0.084203f, -0.148581f, -0.238311f, -0.131498f, -0.105819f, -0.017165f, 0.109106f, -0.116242f, -0.280283f, 0.050172f, -0.162330f, 0.115249f, 0.207150f, -0.215849f, 0.277799f},
    {0.155357f, 0.115345f, 0.008908f, 0.009892f, 0.044871f, -0.164082f, -0.102005f, 0.286217f, -0.026335f, 0.271187f, -0.020055f, 0.061895f, 0.241916f, 0.305933f, -0.051242f, -0.064893f, -0.167001f, 0.168600f, 0.061906f, 0.164059f, -0.069353f, 0.024683f, -0.124122f, -0.056178f, -0.086200f, -0.055671f, 0.088799f, 0.028207f, -0.227227f, -0.088087f, -0.081120f, -0.166938f},
    {0.020599f, 0.095487f, 0.168227f, -0.052297f, -0.252216f, -0.139400f, 0.024775f, 0.163290f, -0.226100f, -0.256252f, 0.311039f, 0.014869f, 0.101854f, -0.292383f, 0.107256f, -0.185834f, -0.163769f, 0.003130f, -0.025718f, 0.170242f, -0.107489f, -0.067839f, -0.027476f, -0.121845f, 0.233276f, -0.111964f, 0.244142f, 0.200636f, 0.239244f, -0.020634f, -0.112045f, 0.123711f},
    {0.184231f, 0.242902f, 0.019771f, 0.299413f, -0.010388f, 0.223863f, 0.213803f, 0.083251f, -0.151819f, 0.014670f, 0.172926f, -0.269141f, -0.251405f, 0.225906f, 0.211744f, 0.138790f, -0.064924f, 0.223592f, -0.033698f, 0.196613f, 0.238345f, 0.139740f, -0.021156f, -0.001857f, 0.262877f, 0.300482f, -0.069172f, 0.278246f, -0.144598f, -0.022877f, 0.189098f, 0.213231f},
    {0.298225f, 0.062331f, 0.024480f, -0.066171f, -0.136058f, 0.235435f, -0.207844f, 0.301251f, -0.236028f, -0.232859f, -1.302504f, 0.057190f, 0.033915f, 0.025866f, -0.023919f, -0.127544f, -0.219358f, -0.213202f, -0.268950f, -0.023526f, 0.104032f, -1.419001f, 0.260553f, -0.243198f, -0.035126f, 0.248876f, 0.021919f, -0.231616f, 0.148029f, -0.713151f, -0.100149f, -0.201274f},
    {-0.126075f, -0.157429f, -0.072384f, -0.295079f, -0.032595f, -0.085356f, -0.033985f, -0.174077f, 0.189111f, -0.305771f, 0.182190f, -0.329416f, -0.920614f, 0.243879f, -0.488504f, -0.015840f, -0.137689f, 0.272423f, 0.017385f, -0.261703f, 0.173966f, 0.007340f, 0.110587f, -0.186437f, -0.219804f, 0.080450f, 0.155274f, 0.128574f, -0.372161f, 0.067925f, 0.047006f, -0.209835f},
    {-0.166662f, -0.165666f, 0.254513f, -0.091933f, -0.566602f, 0.002313f, -0.163859f, -0.121492f, -0.035002f, 0.189541f, 0.240385f, 0.030202f, -0.046153f, -0.329738f, -0.207453f, -0.215275f, -0.447230f, -0.217928f, -0.144388f, 0.137054f, -0.191733f, -0.084277f, -0.313624f, -0.006983f, -0.153604f, 0.017172f, -0.006150f, -0.172596f, -0.304996f, -0.098318f, -0.127097f, 0.094993f},
    {-0.030464f, -0.224254f, -0.144691f, 0.157937f, 0.195971f, -0.285365f, 0.196824f, 0.290917f, -0.270488f, 0.003210f, 0.161022f, 0.054022f, -0.255076f, 0.201112f, -0.112800f, -0.030882f, 0.116456f, -0.153139f, -0.056396f, -0.133882f, -0.272943f, 0.080873f, 0.001267f, 0.272009f, 0.038990f, -0.099135f, 0.039341f, -0.236730f, 0.033728f, -0.184268f, -0.144210f, 0.296804f},
    {-0.047374f, -0.259466f, 0.145805f, 0.246120f, -0.128796f, -0.148827f, -0.234373f, 0.304709f, -0.287843f, 0.213520f, 0.421959f, -0.058607f, -0.149247f, -0.248658f, 0.109289f, 0.043505f, 0.193599f, -0.390735f, -0.249975f, -0.036902f, -0.314267f, 0.156718f, -0.256932f, -0.094155f, 0.179484f, -0.628276f, -0.071498f, -0.013483f, 0.039899f, 0.321572f, 0.386649f, -0.592615f},
    {-0.374914f, -0.681281f, -0.104470f, -0.189559f, -0.206471f, -0.502021f, -0.881044f, -0.256613f, -0.159216f, -0.353886f, 0.538478f, -0.391256f, -0.355663f, -0.143265f, -0.581641f, 1.471087f, -0.040577f, -0.362107f, -0.496130f, -0.143150f, -0.203859f, 1.242143f, -0.117211f, -0.893851f, 0.152433f, -0.308952f, -0.258427f, -0.175643f, -0.415799f, -0.276177f, 0.230861f, 0.101279f},
    {-0.146935f, 0.119029f, -0.283362f, -0.058709f, -0.169618f, -0.006382f, 0.085900f, 0.257168f, -0.075772f, -0.254825f, -0.051979f, -0.198678f, -0.340357f, 0.347152f, -0.037384f, -0.114406f, -0.247229f, 0.200750f, 0.143744f, -0.136651f, 0.077184f, -0.153469f, -0.311934f, -0.120500f, -0.135206f, -0.227989f, -0.228473f, -0.263702f, 0.176764f, 0.217465f, 0.061069f, -0.176718f},
    {-0.053231f, 0.267886f, 0.106610f, 0.144228f, 0.457121f, -0.218142f, -0.280502f, 0.113001f, -0.183529f, -0.182943f, 0.447539f, 0.226314f, -0.291925f, 0.002095f, 0.116469f, 0.090963f, -0.231877f, -0.268459f, -0.007037f, 0.020320f, -0.198346f, 0.042229f, 0.079597f, -0.081506f, -0.289458f, -0.061508f, 0.011804f, -0.286142f, -0.017609f, 0.177285f, 0.178253f, 0.094193f},
    {-0.100697f, -0.271549f, -0.279227f, -0.771532f, -0.036538f, -0.174612f, -1.057485f, -0.469826f, 0.222615f, -0.132331f, -0.011149f, -0.032121f, -0.494630f, -0.436656f, -0.073981f, -0.079332f, -0.341209f, -0.108241f, -0.047442f, -0.351525f, 0.173922f, 0.532019f, -0.289390f, -1.337086f, -0.267958f, -0.173539f, -0.151202f, -0.204945f, -0.165973f, -0.659953f, 0.381112f, 0.158597f},
    {-0.224442f, -0.103672f, -0.136935f, 0.107305f, 0.022485f, -1.399706f, -0.200115f, 0.244644f, -0.357642f, -0.230077f, -1.266240f, 0.092659f, 0.041973f, 0.295703f, 0.092141f, -0.169749f, 0.089055f, 0.056300f, -0.024173f, 0.166871f, -0.266047f, -1.574769f, 0.302273f, 0.253671f, -0.097415f, -0.290051f, 0.303495f, 0.251604f, 0.018176f, 0.181206f, -1.355828f, -0.055096f},
    {-0.015206f, -0.055832f, -0.137258f, 0.139218f, 0.327845f, 0.151982f, 0.101070f, -0.331145f, -0.548738f, 0.080971f, 0.311109f, -0.160895f, -0.115417f, -0.248563f, 0.060553f, -0.225792f, -0.086734f, -0.109322f, 0.054192f, -0.208436f, -0.324079f, -0.175176f, 0.162626f, 0.298142f, 0.003841f, 0.121719f, 0.130027f, 0.170763f, -0.139182f, 0.006320f, -0.141923f, 0.339179f},
    {-0.029392f, -0.001119f, -0.208303f, 0.197517f, 0.198724f, -0.183828f, 0.205306f, 0.198944f, -0.014709f, 0.076112f, 0.096974f, -0.052724f, 0.267366f, -0.220701f, 0.209612f, -0.064859f, 0.055671f, 0.131247f, 0.172827f, 0.185907f, 0.159640f, 0.002807f, -0.210766f, -0.006431f, -0.137531f, 0.252139f, 0.060744f, -0.121203f, 0.010423f, 0.225585f, -0.106123f, 0.022265f},
    {-0.250797f, -0.012797f, 0.134982f, -0.354449f, 0.094718f, -0.315256f, -0.304689f, -0.035035f, -0.317475f, 0.012468f, 0.257419f, -0.133965f, -0.243771f, 0.150941f, 0.141485f, -0.289248f, 0.148736f, 0.089303f, -0.059466f, -0.074465f, -0.058534f, -0.025165f, -0.356870f, 0.194541f, -0.242103f, -0.386615f, 0.276443f, -0.204937f, -0.310012f, 0.046483f, -0.271071f, -0.154399f},
    {0.044659f, -0.006727f, -0.273676f, -0.081745f, -0.269813f, 0.037920f, 0.058386f, -0.211177f, -0.278127f, 0.172763f, -0.201823f, 0.210562f, -0.185880f, -0.098011f, 0.103587f, 0.254141f, 0.142206f, -0.238966f, -0.061113f, 0.168927f, 0.146461f, 0.120272f, 0.011947f, 0.250442f, 0.032268f, 0.082538f, -0.157692f, -0.235531f, -0.251351f, 0.033561f, 0.145162f, 0.290790f},
    {-0.276331f, -0.074963f, 0.026493f, 0.067547f, 0.001169f, -0.027196f, -0.259075f, -0.226940f, 0.396627f, -0.250803f, -0.127632f, -0.313131f, -0.288287f, 0.061460f, -0.418716f, -0.146274f, 0.057082f, 0.410994f, 0.000582f, 0.219627f, 0.072607f, 0.024259f, -0.154079f, 0.152088f, -0.243032f, -0.132909f, 0.180620f, -0.180810f, 0.193750f, -0.204218f, -0.015200f, 0.326916f},
    {-0.158072f, 0.038790f, -0.275571f, -0.988593f, -0.845517f, -0.049869f, -0.142117f, -0.303404f, 0.010218f, 0.189457f, -0.156129f, 0.192856f, -0.056988f, -0.205140f, -0.245530f, -0.126889f, -0.061948f, -1.124160f, 0.241468f, 0.046372f, -1.151160f, 0.125215f, 0.089886f, 0.157692f, -0.235128f, -0.011167f, 0.263622f, -0.125995f, -0.178922f, -1.180418f, 1.128710f, -0.451912f},
};

const float bias2[HIDDEN_DIM] = {
    -0.208946f, -0.941601f, -0.050513f, -0.109922f, -0.653463f, -2.556641f, -1.976381f, -0.213787f, -1.003300f, -0.214756f, -1.324176f, -0.105367f, -0.895049f, -0.262161f, -0.323768f, -1.483385f, -0.113321f, -0.561040f, -0.228086f, -0.566321f, -0.562731f, 1.412688f, -0.068605f, -1.045584f, 0.000000f, -0.166075f, -0.138103f, 0.000000f, -1.746073f, -1.856780f, -1.390449f, -0.529474f
};

const float weights3[HIDDEN_DIM][OUTPUT_DIM] = {
    {0.061184f, 0.142782f, 0.136328f},
    {0.214544f, 0.024517f, 0.017603f},
    {-0.027967f, 0.226900f, 0.079174f},
    {0.026129f, 0.051859f, 0.450583f},
    {-0.107765f, 0.121670f, -0.421336f},
    {0.732176f, 0.256355f, 1.359961f},
    {0.203217f, -0.378663f, 0.086865f},
    {-0.224382f, 0.163779f, 0.241507f},
    {-0.429058f, -0.079468f, -0.196520f},
    {0.244280f, 0.054988f, -0.035319f},
    {-0.672953f, 0.409361f, 0.120594f},
    {-0.110797f, 0.113031f, 0.072281f},
    {0.036931f, 0.282275f, 0.581713f},
    {0.142052f, 0.061188f, -0.110431f},
    {-0.405287f, -0.351439f, 0.250634f},
    {1.187441f, 1.165633f, 1.871166f},
    {0.079172f, 0.149926f, -0.130849f},
    {-0.187245f, 0.300122f, 0.306234f},
    {0.235002f, -0.093510f, -0.315377f},
    {0.542644f, 0.278527f, -0.240357f},
    {-0.691139f, -0.349134f, -0.567492f},
    {1.224523f, 1.256445f, 1.253036f},
    {-0.153315f, 0.002298f, 0.197119f},
    {0.070904f, 1.048124f, -0.966756f},
    {-0.288542f, -0.035070f, -0.409067f},
    {0.688870f, 0.275398f, 0.007784f},
    {0.070965f, -0.285299f, -0.272609f},
    {0.178341f, -0.216574f, -0.353537f},
    {0.187906f, -0.021210f, 0.131954f},
    {-0.119594f, 0.045941f, 0.607585f},
    {0.054669f, 0.321918f, 0.200394f},
    {-0.018468f, 0.485265f, -0.132248f},
};

const float bias3[OUTPUT_DIM] = {
    3.461880f, 4.251375f, 3.866086f
};

#endif
